digraph Tree {
node [shape=box, style="filled, rounded", color="black", fontname="helvetica"] ;
edge [fontname="helvetica"] ;
0 [label="odor_n <= 0.5\ngini = 0.499\nsamples = 5686\nvalue = [2945, 2741]\nclass = setosa", fillcolor="#fdf6f1"] ;
1 [label="bruises_f <= 0.5\ngini = 0.286\nsamples = 3203\nvalue = [553, 2650]\nclass = versicolor", fillcolor="#62b1ea"] ;
0 -> 1 [labeldistance=2.5, labelangle=45, headlabel="True"] ;
2 [label="odor_f <= 0.5\ngini = 0.485\nsamples = 943\nvalue = [553, 390]\nclass = setosa", fillcolor="#f7dac5"] ;
1 -> 2 ;
3 [label="odor_p <= 0.5\ngini = 0.378\nsamples = 740\nvalue = [553, 187]\nclass = setosa", fillcolor="#eeac7c"] ;
2 -> 3 ;
4 [label="gini = 0.0\nsamples = 553\nvalue = [553, 0]\nclass = setosa", fillcolor="#e58139"] ;
3 -> 4 ;
5 [label="gini = 0.0\nsamples = 187\nvalue = [0, 187]\nclass = versicolor", fillcolor="#399de5"] ;
3 -> 5 ;
6 [label="gini = 0.0\nsamples = 203\nvalue = [0, 203]\nclass = versicolor", fillcolor="#399de5"] ;
2 -> 6 ;
7 [label="gini = 0.0\nsamples = 2260\nvalue = [0, 2260]\nclass = versicolor", fillcolor="#399de5"] ;
1 -> 7 ;
8 [label="spore-print-color_r <= 0.5\ngini = 0.071\nsamples = 2483\nvalue = [2392, 91]\nclass = setosa", fillcolor="#e68641"] ;
0 -> 8 [labeldistance=2.5, labelangle=-45, headlabel="False"] ;
9 [label="stalk-surface-below-ring_y <= 0.5\ngini = 0.028\nsamples = 2427\nvalue = [2392, 35]\nclass = setosa", fillcolor="#e5833c"] ;
8 -> 9 ;
10 [label="gill-size_n <= 0.5\ngini = 0.005\nsamples = 2387\nvalue = [2381, 6]\nclass = setosa", fillcolor="#e58139"] ;
9 -> 10 ;
11 [label="gini = 0.0\nsamples = 2242\nvalue = [2242, 0]\nclass = setosa", fillcolor="#e58139"] ;
10 -> 11 ;
12 [label="bruises_f <= 0.5\ngini = 0.079\nsamples = 145\nvalue = [139, 6]\nclass = setosa", fillcolor="#e68642"] ;
10 -> 12 ;
13 [label="gini = 0.0\nsamples = 6\nvalue = [0, 6]\nclass = versicolor", fillcolor="#399de5"] ;
12 -> 13 ;
14 [label="gini = 0.0\nsamples = 139\nvalue = [139, 0]\nclass = setosa", fillcolor="#e58139"] ;
12 -> 14 ;
15 [label="gill-size_b <= 0.5\ngini = 0.399\nsamples = 40\nvalue = [11, 29]\nclass = versicolor", fillcolor="#84c2ef"] ;
9 -> 15 ;
16 [label="gini = 0.0\nsamples = 29\nvalue = [0, 29]\nclass = versicolor", fillcolor="#399de5"] ;
15 -> 16 ;
17 [label="gini = 0.0\nsamples = 11\nvalue = [11, 0]\nclass = setosa", fillcolor="#e58139"] ;
15 -> 17 ;
18 [label="gini = 0.0\nsamples = 56\nvalue = [0, 56]\nclass = versicolor", fillcolor="#399de5"] ;
8 -> 18 ;
}